tree
version=v4
num_class=1
num_tree_per_iteration=1
label_index=0
max_feature_idx=25
objective=regression
feature_names=open high low close volume daily_return volatility_20 momentum_20 volume_ratio palm_oil_beta fx_sensitivity shariah_compliant shariah_event glc_flag glc_spread cny_window hari_raya_window deepavali_window christmas_window year_end any_festive opr_rate opr_regime opr_hiking opr_cutting opr_holding
feature_infos=[1:159.10000610351562] [1.1150000095367432:163] [1:153] [1.0349999666213989:157.39999389648438] [0:584247353] [-0.89697543190808848:1.9464286216059516] [0:0.43570751542902425] [-0.90329475190065667:1.9855597526024207] [0:20] none [-0.54665267475354085:0.61111207339407181] none none [0:1] none [0:1] [0:1] [0:1] [0:1] [0:1] [0:1] [2:3] [-1:1] [0:1] [0:1] [0:1]
tree_sizes=3004 3052 3030 3056 3058 3081 3082 3056 3061 3055 3049 3066 3071 3077 3052 3082

Tree=0
num_leaves=31
num_cat=0
split_feature=5 10 6 5 3 8 18 7 8 7 5 4 10 8 7 7 3 10 0 3 0 8 4 6 10 21 10 0 8 7
split_gain=0.093065 0.0467313 0.11648 0.0296567 0.0176472 0.0144544 0.0142655 0.0235607 0.0129262 0.0126034 0.011955 0.0117442 0.0112026 0.010827 0.0105627 0.00989696 0.00931304 0.0168505 0.0114159 0.0092705 0.0111281 0.00944075 0.00862912 0.00799078 0.00731325 0.00670757 0.00654316 0.00526753 0.00410506 0.00405783
threshold=-0.032322987973694088 -0.19832341793578584 0.022870399631669862 0.035889419936153029 1.5925000309944155 0.52347729483846261 1.0000000180025095e-35 -0.036697213458374615 5.3404083663299815 -0.1395872564747774 0.014460281806773058 7876850.0000000009 0.18845530593268037 1.0328648740044286 -0.1395872564747774 -0.018424410086976258 3.8019999265670781 -0.21429631065373353 3.8502554893493657 3.9910000562667851 4.9019999504089364 3.7496703701659757 11055493.500000002 0.015158590662310083 -0.040890299759831827 2.1250000000000004 0.036302874284024886 26.710000038146976 1.6286786278566419 -0.082972565014033758
decision_type=10 8 10 10 2 8 2 10 10 8 10 2 8 10 10 10 2 10 2 2 2 10 2 10 10 2 10 2 10 10
left_child=1 2 28 4 12 15 16 29 9 11 -9 -7 13 24 -5 -3 17 -6 -18 23 22 -22 -21 -16 -2 -25 -15 -11 -1 -8
right_child=3 5 -4 14 6 8 7 10 -10 27 -12 -13 -14 26 19 -17 18 -19 -20 20 21 -23 -24 25 -26 -27 -28 -29 -30 -31
leaf_value=0.0004191802975669373 -8.0494345026135665e-08 0.0020094860033941652 0.0053771929645017799 0.00093213503988987044 0.0007310241209158208 -0.000495717162440454 0.0013225660410290903 0.00049307322306794022 0.0017787829421049288 0.00082260570708660933 0.00011138227411326945 0.00061170728731712253 0.00028589447182216269 0.0017184266914030927 -0.00046959271285815853 0.00082975730471390025 0.0001527380011724446 0.00042559853595021293 0.00038841766953965587 -0.00062098947704892528 2.7105028358501398e-05 0.00083772064261666574 8.726879266466453e-05 0.00091101722227753283 0.00077405153052769208 0.00026853369652788393 0.00094345599709130595 0.00020750538760461428 0.0013642892155485305 0.00084320999335669522
leaf_weight=27 36 40 20 37 480 39 54 2325 29 587 225 62 118 45 28 32 519 7629 51412 117 352 40 68 54 200 164 69 37 20 242
leaf_count=27 36 40 20 37 480 39 54 2325 29 587 225 62 118 45 28 32 519 7629 51412 117 352 40 68 54 200 164 69 37 20 242
internal_value=0.000404396 0.000911315 0.00218131 0.000397346 0.000401305 0.000808301 0.000399029 0.000508409 0.000743667 0.000702262 0.000459395 0.000184088 0.000707202 0.000849243 0.000105701 0.00148516 0.000393844 0.000443678 0.000386062 6.8547e-05 -4.10255e-05 0.000109821 -0.000360657 0.000325552 0.000655964 0.000427681 0.00124937 0.000786133 0.000821354 0.00093066
internal_weight=65107 893 67 64214 63354 826 62886 2846 754 725 2550 101 468 350 860 72 60040 8109 51931 823 577 392 185 246 236 218 114 624 47 296
internal_count=65107 893 67 64214 63354 826 62886 2846 754 725 2550 101 468 350 860 72 60040 8109 51931 823 577 392 185 246 236 218 114 624 47 296
is_linear=0
shrinkage=1


Tree=1
num_leaves=31
num_cat=0
split_feature=5 10 6 5 3 8 18 7 8 5 7 10 10 8 7 5 10 7 3 1 8 10 10 6 6 7 10 21 3 0
split_gain=0.0839912 0.042175 0.105123 0.0267652 0.0159266 0.0130451 0.0128746 0.0213288 0.0116659 0.0115531 0.0113745 0.0108831 0.0101103 0.00977133 0.00953287 0.00921944 0.00880059 0.0151365 0.00855498 0.0155752 0.00989134 0.00931832 0.00750991 0.00714753 0.00683834 0.00632404 0.0059052 0.00556221 0.00541943 0.00475395
threshold=-0.032322987973694088 -0.19832341793578584 0.022870399631669862 0.035889419936153029 1.5925000309944155 0.52347729483846261 1.0000000180025095e-35 -0.018424410086976258 5.3404083663299815 0.011823452044542162 -0.1395872564747774 -0.067668095444137391 0.18845530593268037 1.0328648740044286 -0.1395872564747774 -0.035550228357678786 0.12100818531776719 -0.077067771326002274 4.2449998855590829 4.8529999256134042 3.7496703701659757 -0.045746005050101991 0.082342920125530614 0.015158590662310083 0.025080103805102321 -0.061551390290527412 0.036302874284024886 2.1250000000000004 4.9620001316070566 26.710000038146976
decision_type=10 8 10 10 2 8 2 10 10 10 8 10 8 10 10 10 8 10 2 2 10 10 10 10 10 10 10 2 2 2
left_child=1 2 -1 4 12 15 16 25 10 -9 11 -7 13 24 -5 22 17 -6 23 21 -21 -20 -3 -16 -2 -8 -15 -25 -18 -12
right_child=3 5 -4 14 6 8 7 9 -10 -11 29 -13 -14 26 18 -17 28 -19 19 20 -22 -23 -24 27 -26 -27 -28 -29 -30 -31
leaf_value=0.00039611063142767808 8.7109601801576219e-05 0.00090031226061220316 0.0047241573233623062 0.00050135234628829203 -0.00016087110728268134 0.00074651414660089049 0.00067352445206057484 7.3286954185988661e-05 0.0013056679024383154 -0.00025990827416778 0.00039729946867328415 -0.00049113280748805171 -0.00011257618156131516 0.0012483294203411788 -0.00079026131328040119 0.0002008990284672979 6.3856757951291865e-05 -1.6014676981397552e-05 -0.0016506775372129468 -0.00038201899746874397 0.0004341997602307125 -0.00064907130935867125 0.0021597345176360251 0.0003788030735021868 0.00071594551375572465 0.00027936835186952332 0.00051210725762665377 -0.00015002402338526542 2.3445091353411683e-06 -0.00018704585484040248
leaf_weight=47 179 29 20 37 1888 23 131 1959 29 300 587 78 118 45 33 23 4947 40240 35 392 41 69 20 68 57 456 69 185 12965 37
leaf_count=47 179 29 20 37 1888 23 131 1959 29 300 587 78 118 45 33 23 4947 40240 35 392 41 69 20 68 57 456 69 185 12965 37
internal_value=2.38223e-12 0.000481573 0.00168806 -6.69705e-06 -2.93606e-06 0.00038371 -5.09873e-06 9.88125e-05 0.000322308 2.90379e-05 0.000282973 -0.000209292 0.000287666 0.000422605 -0.00028376 0.00102673 -1.00243e-05 -2.25065e-05 -0.000319056 -0.000436702 -0.000304733 -0.00098615 0.00141436 -9.81624e-05 0.000238989 0.000367332 0.000802721 -7.88868e-06 1.93332e-05 0.000362651
internal_weight=65107 893 67 64214 63354 826 62886 2846 754 2259 725 101 468 350 860 72 60040 42128 823 537 433 104 49 286 236 587 114 253 17912 624
internal_count=65107 893 67 64214 63354 826 62886 2846 754 2259 725 101 468 350 860 72 60040 42128 823 537 433 104 49 286 236 587 114 253 17912 624
is_linear=0
shrinkage=0.05


Tree=2
num_leaves=31
num_cat=0
split_feature=5 10 0 5 3 6 10 7 8 8 8 7 4 10 7 7 7 0 1 7 3 1 8 10 7 2 5 4 6 13
split_gain=0.075802 0.0380629 0.096102 0.0241556 0.0152607 0.0140914 0.0254718 0.0892312 0.0232033 0.0117732 0.0105284 0.0102655 0.0105533 0.00953737 0.0187023 0.018096 0.00873313 0.00867958 0.0447694 0.00860341 0.00772087 0.0140566 0.00892694 0.00840979 0.00767438 0.00815093 0.00723554 0.00692225 0.00645064 0.00643963
threshold=-0.032322987973694088 -0.19832341793578584 3.8820000886917119 0.035889419936153029 3.8019999265670781 0.019366684407684454 -0.21429631065373353 -0.058441492377089226 0.10631742253560307 0.52347729483846261 5.3404083663299815 -0.1395872564747774 7876850.0000000009 0.13001483072785322 -0.1633475781630295 -0.077067771326002274 -0.018424410086976258 4.1619999408721933 4.1710000038146982 -0.1395872564747774 4.2449998855590829 4.8529999256134042 3.7496703701659757 -0.045746005050101991 0.16022102237226934 1.682499945163727 -0.013360868930125279 26272200.000000004 0.015158590662310083 1.0000000180025095e-35
decision_type=10 8 2 10 2 10 8 8 10 8 10 8 2 8 10 8 10 2 2 10 2 2 10 10 10 2 10 2 10 2
left_child=1 2 -1 4 5 24 7 -7 -8 16 11 12 -11 14 26 -16 -3 18 -15 -5 28 23 -23 -22 25 -2 -6 -19 -21 -4
right_child=3 9 29 19 13 6 8 -9 -10 10 -12 -13 -14 17 15 -17 -18 27 -20 20 21 22 -24 -25 -26 -27 -28 -29 -30 -31
leaf_value=0.0045065655512735248 0.00026699886129577939 0.00146792295287014 -0.00015760288896182409 0.00047628473273377767 0.0014957998097524978 0.0038492072955705228 -0.0015093043876861754 8.1356298458693491e-06 0.00016271282119294944 -0.00084324440641257064 0.0012403844769417855 0.00034451824465505233 0.00020653110639672848 7.0869274109530594e-05 -0.00020587051113430031 -2.0580911859328706e-05 0.00035972760042568552 1.6808722161956298e-05 0.0015119322817091895 -0.00075074826679404159 -0.0015681436955596189 -0.00036291805193527861 0.00041248977662379309 -0.00061661775267777457 -0.00086674978956580162 1.6794621587005373e-05 0.0004005479157441235 -0.00030140713491642613 -7.4942259621468697e-06 0.0010196044508899963
leaf_weight=20 342 40 26 37 25 21 21 54 1740 39 29 624 62 623 1365 38036 32 14084 59 33 35 392 41 69 24 6749 38 173 253 21
leaf_count=20 342 40 26 37 25 21 21 54 1740 39 29 624 62 623 1365 38036 32 14084 59 33 35 392 41 69 24 6749 38 173 253 21
internal_value=1.56348e-12 0.000457494 0.00160366 -6.3622e-06 -2.78926e-06 5.77093e-05 0.000181208 0.00108364 0.000142774 0.000364524 0.000306192 0.000268825 -0.000198828 -1.27432e-05 -2.56237e-05 -2.7e-05 0.000975392 2.1283e-05 0.000195536 -0.000269572 -0.000303104 -0.000414867 -0.000289496 -0.000936843 2.5841e-05 2.8862e-05 0.000835172 1.29474e-05 -9.32543e-05 0.000368383
internal_weight=65107 893 67 64214 63354 8951 1836 75 1761 826 754 725 101 54403 39464 39401 72 14939 682 860 823 537 433 104 7115 7091 63 14257 286 47
internal_count=65107 893 67 64214 63354 8951 1836 75 1761 826 754 725 101 54403 39464 39401 72 14939 682 860 823 537 433 104 7115 7091 63 14257 286 47
is_linear=0
shrinkage=0.05


Tree=3
num_leaves=31
num_cat=0
split_feature=5 2 2 5 8 3 6 8 10 5 7 16 7 18 7 7 5 20 7 8 7 10 8 6 0 5 10 6 0 0
split_gain=0.0684117 0.0359143 0.114489 0.0219591 0.0142432 0.0133953 0.0124618 0.0226869 0.0235327 0.0114989 0.0168274 0.0141888 0.00899311 0.00894615 0.012962 0.00945947 0.00862171 0.0244937 0.00945808 0.00868932 0.00843586 0.00831985 0.00808756 0.0107741 0.00922456 0.00961708 0.00873299 0.00776152 0.00848651 0.00705726
threshold=-0.032322987973694088 2.2410000562667851 2.0673955678939824 0.044710152187178449 5.3404083663299815 3.8019999265670781 0.019366684407684454 0.10631742253560307 -0.21429631065373353 0.020076659526476418 -0.012986961604660173 1.0000000180025095e-35 -0.1633475781630295 1.0000000180025095e-35 -0.018014139673468928 -0.052559098973152467 -0.050617670260373553 1.0000000180025095e-35 -0.1395872564747774 1.4897202459210106 0.14381198603767778 0.11925155286258048 1.8761393487353721 0.029115653146022043 21.510000228881839 0.056366844400175038 -0.064136465997557471 0.019570947753935489 3.9110000133514409 1.7025000452995303
decision_type=8 2 2 10 10 2 10 10 8 10 10 2 10 2 10 10 10 2 10 10 10 10 10 10 2 10 8 10 2 2
left_child=1 2 12 5 16 6 20 -8 -9 13 11 -11 -1 15 -15 -7 17 21 -18 -19 29 -3 23 24 25 -5 -24 -28 -29 -2
right_child=3 4 -4 22 -6 9 7 8 -10 10 -12 -13 -14 14 -16 -17 18 19 -20 -21 -22 -23 26 -25 -26 -27 27 28 -30 -31
leaf_value=0.001425614453619346 0.00024661062900921247 0.00088409340309958872 0.0046023873689894877 -0.00036969231411679483 0.0015707171109335669 -8.4427027304295567e-05 -0.0013938601834841235 0.0010420072224299581 0.00014930541143316301 -1.1606209497889116e-05 -0.00019881175612325195 0.00063419971787962749 0.00021947701581452483 0.00031841135320128788 2.7616980592499423e-05 -6.1799941952806325e-06 -0.0004848148250554611 0.00062930896589211355 0.00024779857702103087 -0.00045467707848943333 -0.00069258324546376019 0.002028691900195554 -0.00066513828417057847 -8.7134586934598142e-05 -0.0017219529978161599 -0.0013007798648173683 -0.00041542248182682966 0.00089645455832729432 -8.3073989359642533e-05 1.5423548522741728e-05
leaf_weight=20 347 77 21 96 22 4217 23 77 1790 375 1710 110 68 481 1885 45950 48 29 536 51 41 20 53 81 23 39 49 41 48 6779
leaf_count=20 347 77 21 96 22 4217 23 77 1790 375 1710 110 68 481 1885 45950 48 29 536 51 41 20 53 81 23 39 49 41 48 6779
internal_value=-8.02356e-13 0.000434868 0.0012852 -6.04068e-06 0.000316494 -3.64e-06 5.26848e-05 0.000166895 0.000186123 -1.29613e-05 -0.000125084 0.000134865 0.000493599 -8.27643e-06 8.67345e-05 -1.27574e-05 0.000280236 0.000585935 0.000187584 -6.17321e-05 2.25665e-05 0.00112009 -0.00036215 -0.000555999 -0.000796366 -0.000638673 -0.000119586 8.99376e-05 0.000368169 2.66812e-05
internal_weight=65107 892 109 64215 783 63785 9057 1890 1867 54728 2195 485 88 52533 2366 50167 761 177 584 80 7167 97 430 239 158 135 191 138 89 7126
internal_count=65107 892 109 64215 783 63785 9057 1890 1867 54728 2195 485 88 52533 2366 50167 761 177 584 80 7167 97 430 239 158 135 191 138 89 7126
is_linear=0
shrinkage=0.05


Tree=4
num_leaves=31
num_cat=0
split_feature=5 8 2 5 3 6 8 10 3 8 0 16 10 10 7 0 7 7 17 10 3 10 2 10 7 10 22 7 7 5
split_gain=0.0617462 0.0342445 0.106006 0.0200646 0.0124816 0.0116121 0.0207317 0.0212917 0.00980188 0.00970585 0.0094137 0.00820866 0.0234367 0.00782866 0.0151055 0.00907188 0.00737971 0.0073426 0.00712188 0.00743481 0.00803145 0.00685134 0.00675792 0.00649551 0.00544059 0.0136511 0.00518214 0.00395824 0.00318348 0.00306115
threshold=-0.032322987973694088 0.63616516123167721 2.2908970117568974 0.035889419936153029 3.8019999265670781 0.018379595019715745 0.10631742253560307 -0.21429631065373353 4.1619999408721933 5.3404083663299815 3.8502554893493657 1.0000000180025095e-35 -0.18854630380256132 0.13731071732957731 -0.1633475781630295 4.1619999408721933 -0.1395872564747774 0.14381198603767778 1.0000000180025095e-35 0.34506323339698924 4.3020000457763681 -0.30175799174514967 1.682499945163727 0.0071538550001889372 -0.1395872564747774 -0.039395434472194589 -1.0000000180025095e-35 -0.082972565014033758 -0.025746822596573956 -0.0025906711748781559
decision_type=10 8 2 10 2 10 10 8 2 10 2 2 8 8 10 2 10 10 2 8 2 10 2 10 10 10 2 10 10 10
left_child=1 2 -1 4 5 17 -7 -8 -4 21 11 29 -13 14 -12 -15 -5 22 19 20 -18 -3 -2 -10 25 -23 -20 -26 -25 -6
right_child=3 9 8 16 10 6 7 -9 23 -11 13 12 -14 15 -16 -17 18 -19 26 -21 -22 24 -24 28 27 -27 -28 -29 -30 -31
leaf_value=0.0044263412251547424 0.00025393001874841789 0.0010863730014534668 -0.0004176606803825548 0.00044514919816818395 0.00020742226729825996 -0.0013078357770988684 0.00093145434035374244 0.00013710906713122861 0.0002804917619297547 0.0011583204197156574 0.00073507536347581972 -0.0020640223694499585 -0.00023734879302966209 0.00021595384334176026 -2.197837446135591e-05 1.4333202861523295e-05 -0.00012525774421202717 -0.00078781811670134122 0.00080754503202721628 0.00052778006717562676 -0.00047162912525399207 0.00081442672775925275 1.2710137027348014e-05 0.0016593357524834576 0.00052996913871083962 -0.00049185953942859281 -0.00011346922870177964 0.00021790908257614006 0.00077790523147476575 -0.00017428783608901393
leaf_weight=21 304 24 22 37 61 24 88 2039 35 31 66 22 87 582 39726 13481 259 28 24 25 473 28 6468 20 128 70 42 493 21 378
leaf_count=21 304 24 22 37 61 24 88 2039 35 31 66 22 87 582 39726 13481 259 28 24 25 473 28 6468 20 128 70 42 493 21 378
internal_value=8.20679e-13 0.000412905 0.00120256 -5.74212e-06 -2.48575e-06 5.22277e-05 0.000153485 0.000169973 0.000511749 0.000291499 -1.14878e-05 -0.000217675 -0.000606035 -9.38979e-06 -2.07227e-05 2.26773e-05 -0.00024563 2.01978e-05 -0.000276686 -0.000320116 -0.000349074 0.000255332 2.35387e-05 0.000780789 0.000227593 -0.000118635 0.000221445 0.000282231 0.00120787 -0.000121248
internal_weight=65107 893 119 64214 63354 8951 2151 2127 98 774 54403 548 109 53855 39792 14063 860 6800 823 757 732 743 6772 76 719 98 66 621 41 439
internal_count=65107 893 119 64214 63354 8951 2151 2127 98 774 54403 548 109 53855 39792 14063 860 6800 823 757 732 743 6772 76 719 98 66 621 41 439
is_linear=0
shrinkage=0.05


Tree=5
num_leaves=31
num_cat=0
split_feature=5 10 6 5 3 6 2 10 7 5 7 16 8 18 7 7 8 7 4 6 10 3 0 5 7 10 0 7 6 4
split_gain=0.0557356 0.0328257 0.0925977 0.0185667 0.0108719 0.0102873 0.0209612 0.0317179 0.0172867 0.00988827 0.0151303 0.0128282 0.00911938 0.00810372 0.0120585 0.0086926 0.00761385 0.00800234 0.00896842 0.00735673 0.00855271 0.00773632 0.00792875 0.00715944 0.00704819 0.00666241 0.00577523 0.00508919 0.00456037 0.00434475
threshold=-0.032322987973694088 -0.19832341793578584 0.022870399631669862 0.044710152187178449 3.8019999265670781 0.019366684407684454 2.0673955678939824 -0.21429631065373353 -0.094488169119249163 0.020076659526476418 -0.012986961604660173 1.0000000180025095e-35 0.52826835342823408 1.0000000180025095e-35 -0.036697213458374615 -0.052559098973152467 5.3404083663299815 -0.1395872564747774 7876850.0000000009 0.015158590662310083 0.20256274068179519 4.3020000457763681 7.1514539718627939 -0.035550228357678786 0.14381198603767778 -0.0085048431092432566 1.7025000452995303 0.056705931609053246 0.016599592069256871 17003350.000000004
decision_type=8 8 10 10 2 10 2 8 10 10 10 2 10 2 10 10 10 10 2 10 8 2 2 10 10 10 2 10 10 2
left_child=1 2 -1 4 5 24 8 -8 -7 13 11 -11 23 15 -15 -6 17 18 -14 27 21 29 -23 25 26 -3 -2 -5 -12 -21
right_child=3 12 -4 19 9 6 7 -9 -10 10 28 -13 16 14 -16 -17 -18 -19 -20 20 -22 22 -24 -25 -26 -27 -28 -29 -30 -31
leaf_value=0.00024431910746027419 0.00022284705708506557 0.0005120492497337095 0.0043063524109311401 -0.0014352126119774767 -8.0265986787101187e-05 -0.00057738010523651075 0.0015356339812569787 0.00022406456882170697 5.4618128784451593e-05 -8.3948680430088033e-06 -0.0002398771330961547 0.00060566538739790718 -0.00078405631580748248 0.00042962803818708049 4.6356898255157696e-05 -5.2576844195328472e-06 0.0010490854896990389 0.00028978551037028594 0.00018368789253966704 -0.00030121759867196329 0.00042042300337925554 -0.00083339532934462472 -0.00019535078876784114 0.00011593377263204236 -0.00063355545706410971 0.0016901838447665797 1.3710525424499388e-05 -0.00036938919653212431 -6.2854236747149288e-05 0.00024921708840807815
leaf_weight=47 347 21 20 24 4217 135 48 1162 545 375 1185 110 39 227 2139 45950 29 623 62 85 41 109 88 23 41 28 6779 21 525 62
leaf_count=47 347 21 20 24 4217 135 48 1162 545 375 1185 110 39 227 2139 45950 29 623 62 85 41 109 88 23 41 28 6779 21 525 62
internal_value=-2.17387e-12 0.000392517 0.00145687 -5.45239e-06 -3.24492e-06 4.7498e-05 0.000151267 0.000276094 -7.08521e-05 -1.16424e-05 -0.000115616 0.000130877 0.000306079 -7.29807e-06 8.31289e-05 -1.15628e-05 0.000254675 0.000222855 -0.000189996 -0.000332902 -0.000262197 -0.000343555 -0.000548381 0.000843676 2.01334e-05 0.00118527 2.38944e-05 -0.000937828 -0.000185528 -6.90615e-05
internal_weight=65107 892 67 64215 63785 9057 1890 1210 680 54728 2195 485 825 52533 2366 50167 753 724 101 430 385 344 197 72 7167 49 7126 45 1710 147
internal_count=65107 892 67 64215 63785 9057 1890 1210 680 54728 2195 485 825 52533 2366 50167 753 724 101 430 385 344 197 72 7167 49 7126 45 1710 147
is_linear=0
shrinkage=0.05


Tree=6
num_leaves=31
num_cat=0
split_feature=5 10 6 5 3 6 2 10 7 5 7 7 8 18 7 7 8 6 0 5 10 7 8 7 10 6 6 7 22 0
split_gain=0.0503014 0.0296252 0.0835694 0.0167565 0.00981188 0.00928428 0.0189175 0.0286254 0.0156013 0.00892416 0.0136665 0.00931345 0.00823024 0.00731361 0.0109526 0.00784507 0.00706293 0.00911457 0.00831607 0.00884636 0.00754352 0.00694669 0.0068715 0.00722211 0.00856496 0.00654254 0.00782511 0.00636099 0.00581765 0.00521214
threshold=-0.032322987973694088 -0.19832341793578584 0.022870399631669862 0.044710152187178449 3.8019999265670781 0.019366684407684454 2.0673955678939824 -0.21429631065373353 -0.094488169119249163 0.020076659526476418 -0.1395872564747774 -0.012986961604660173 0.52826835342823408 1.0000000180025095e-35 -0.023972604202144861 -0.052559098973152467 1.8761393487353721 0.029115653146022043 21.510000228881839 0.056366844400175038 -0.064136465997557471 -0.018424410086976258 5.3404083663299815 -0.1395872564747774 -0.067668095444137391 0.019570947753935489 0.025080103805102321 0.14381198603767778 -1.0000000180025095e-35 1.7025000452995303
decision_type=8 8 10 10 2 10 2 8 10 10 10 10 10 2 10 10 10 10 2 10 8 10 10 10 10 10 10 10 2 2
left_child=1 2 -1 4 5 27 8 -8 -7 13 -11 -12 21 15 -15 -6 17 18 19 -5 28 -3 23 24 -14 -22 -27 29 -18 -2
right_child=3 12 -4 16 9 6 7 -9 -10 10 11 -13 22 14 -16 -17 20 -19 -20 -21 25 -23 -24 -25 -26 26 -28 -29 -30 -31
leaf_value=0.00023210314876508919 0.00021170470004724151 0.0012407681264448912 0.0040910348854959018 -0.00031078833364214613 -7.6252685953508893e-05 -0.00054851110575934096 0.0014588522652047688 0.00021286134241831241 5.1887224998350212e-05 0.0011301043879939244 7.6542257070296555e-05 -0.00017625159366861231 0.00066742546269265212 0.00032299677284164 3.1547221005334132e-05 -4.9947964513665247e-06 -0.0011510073677636684 -6.6164166240429759e-05 -0.0015973192833252656 -0.0012037880544271619 -0.0003588274401223242 0.00025239691965452951 0.00099663123466347441 0.00027529623205140068 -0.00043052377292881897 0.00094295327934170413 -1.6843481312712862e-05 -0.00060187767503964832 -0.00010162740654777736 1.30249939361285e-05
leaf_weight=47 347 40 20 96 4217 135 48 1162 545 22 463 1710 23 385 1981 45950 25 81 23 39 49 32 29 623 78 35 54 41 28 6779
leaf_count=47 347 40 20 96 4217 135 48 1162 545 22 463 1710 23 385 1981 45950 25 81 23 39 49 32 29 623 78 35 54 41 28 6779
internal_value=-5.24553e-15 0.000372891 0.00138402 -5.17977e-06 -3.08267e-06 4.51231e-05 0.000143703 0.000262289 -6.73095e-05 -1.10603e-05 -0.000109835 -0.000122389 0.000290775 -6.93316e-06 7.89724e-05 -1.09847e-05 -0.000316257 -0.00049741 -0.000718492 -0.000568766 -8.95784e-05 0.000801492 0.000241941 0.000211712 -0.000180496 0.000105154 0.000360605 1.91267e-05 -0.000596618 2.26997e-05
internal_weight=65107 892 67 64215 63785 9057 1890 1210 680 54728 2195 2173 825 52533 2366 50167 430 239 158 135 191 72 753 724 101 138 89 7167 53 7126
internal_count=65107 892 67 64215 63785 9057 1890 1210 680 54728 2195 2173 825 52533 2366 50167 430 239 158 135 191 72 753 724 101 138 89 7167 53 7126
is_linear=0
shrinkage=0.05


Tree=7
num_leaves=31
num_cat=0
split_feature=5 2 3 5 3 8 10 7 10 18 7 5 5 20 10 8 7 10 7 7 17 10 8 10 5 22 4 1 8 8
split_gain=0.045397 0.0288355 0.10166 0.0152489 0.0111206 0.0104233 0.00920611 0.00912308 0.00959341 0.00896851 0.015952 0.00921217 0.0074014 0.0212258 0.0075992 0.00730916 0.00702007 0.0067199 0.0128598 0.00637519 0.00624471 0.00637544 0.00700104 0.00568294 0.00512484 0.0045426 0.00416464 0.00394634 0.00272493 0.0038532
threshold=-0.032322987973694088 2.2410000562667851 2.0755710601806645 0.035889419936153029 1.5925000309944155 5.3404083663299815 0.18845530593268037 -0.11303512859803376 -0.058995807717502201 1.0000000180025095e-35 -0.036697213458374615 0.014460281806773058 -0.050617670260373553 1.0000000180025095e-35 0.11925155286258048 1.4897202459210106 -0.1633475781630295 0.12100818531776719 -0.077067771326002274 -0.1395872564747774 1.0000000180025095e-35 0.34506323339698924 0.46454353823383226 -0.17917862397255527 -0.016216221847236586 -1.0000000180025095e-35 11611700.000000002 20.409999847412113 0.48085039777592348 0.72614937340556529
decision_type=8 2 2 10 2 10 8 10 10 2 10 10 10 2 10 10 10 8 10 10 2 8 10 10 10 2 2 2 10 10
left_child=1 2 26 4 6 12 7 -2 -9 17 27 -12 13 14 -3 -15 -14 18 -6 -5 21 22 -21 -18 -19 -22 -1 -11 -8 -30
right_child=3 5 -4 19 9 -7 28 8 -10 10 11 -13 16 15 -16 -17 23 24 -20 20 25 -23 -24 -25 -26 -27 -28 -29 29 -31
leaf_value=-9.3500130211136181e-05 0.0011742309817236675 0.00077210310872080255 0.0040688705062443065 0.00042799789268945068 -0.00014644288781133098 0.0013211103939366614 -0.00059315268209992125 -0.00059528621256634202 0.00037386612275252542 0.00038113647261859803 7.2071359086128001e-05 -0.00026298527685099138 -0.00067177499978032969 0.00053127470370060927 0.0018660075451771266 -0.00046290420163773785 -0.00033987589372554795 0.00013285547423209004 -1.2923846072909041e-05 -0.00097121760558557552 0.00077227697832616586 0.00050158725643996156 -0.00027421360242895902 0.00021879613915004706 1.1443833155738086e-05 -9.0034007561847658e-05 0.00061475380880794694 0.0011084870954073268 0.00045173488266300418 -0.00023853385017343588
leaf_weight=35 32 77 23 37 1888 22 26 28 290 276 2325 225 26 29 20 51 50 916 40240 38 24 25 694 508 16997 42 51 20 30 62
leaf_count=35 32 77 23 37 1888 22 26 28 290 276 2325 225 26 29 20 51 50 916 40240 38 24 25 694 508 16997 42 51 20 30 62
internal_value=1.58617e-13 0.000354246 0.00111618 -4.92078e-06 -2.08202e-06 0.000248179 0.000240747 0.00036951 0.000288532 -3.88913e-06 8.28382e-05 4.25075e-05 0.000217161 0.000500401 0.00099765 -0.000102514 0.000131316 -8.00009e-06 -1.89076e-05 -0.000214048 -0.000242913 -0.000283581 -0.000310397 0.000168736 1.76523e-05 0.000223534 0.000326511 0.000430282 -0.000141178 -1.34462e-05
internal_weight=65107 892 109 64215 63355 783 468 350 318 62887 2846 2550 761 177 97 80 584 60041 42128 860 823 757 732 558 17913 66 86 296 118 92
internal_count=65107 892 109 64215 63355 783 468 350 318 62887 2846 2550 761 177 97 80 584 60041 42128 860 823 757 732 558 17913 66 86 296 118 92
is_linear=0
shrinkage=0.05


Tree=8
num_leaves=31
num_cat=0
split_feature=5 8 2 5 3 6 10 10 2 3 7 22 10 5 7 7 8 0 10 8 8 10 10 7 5 7 0 6 6 22
split_gain=0.0409708 0.0279452 0.0939545 0.0141807 0.00872562 0.00857009 0.0344611 0.0705153 0.0171019 0.00853519 0.00800052 0.0145277 0.0130919 0.00936298 0.00900485 0.0083978 0.00794879 0.00784967 0.0064989 0.00801242 0.00627089 0.00612513 0.00578092 0.0056842 0.00566034 0.0108838 0.00885532 0.00558524 0.00593713 0.00547792
threshold=-0.032322987973694088 0.63616516123167721 2.2908970117568974 0.044710152187178449 3.8019999265670781 0.023880994872975122 -0.21429631065373353 -0.22605265317422227 2.6527794599533085 4.1619999408721933 -0.1395872564747774 -1.0000000180025095e-35 0.11925155286258048 0.020076659526476418 -0.067205868853839931 -0.012986961604660173 0.80696547481184533 1.4475000500679018 -0.064136465997557471 1.8218158002073779 5.3404083663299815 -0.058995807717502201 0.0071538550001889372 -0.065165725021295015 -0.040582767752047881 -0.1395872564747774 31.250000000000004 0.027618196613092404 0.023349077016062491 -1.0000000180025095e-35
decision_type=8 10 2 10 2 10 8 8 2 2 8 2 10 10 10 10 10 2 8 10 10 10 10 10 10 10 2 10 10 2
left_child=1 2 -1 4 5 17 7 -7 -8 -4 11 12 -6 14 -12 -15 -13 21 23 27 24 -2 -11 -5 26 -26 -3 28 -20 -21
right_child=3 20 9 18 10 6 8 -9 -10 22 13 16 -14 15 -16 -17 -18 -19 19 29 -22 -23 -24 -25 25 -27 -28 -29 -30 -31
leaf_value=0.0040848098395924485 -8.7437876357364955e-05 0.00039617964463859579 -0.00046782707153893583 0.00012302862881018552 0.0012266295893871423 -5.5562965360422826e-05 -6.9117030787450466e-05 0.0036732012148214771 0.00036390711811458681 0.00017853112442285887 -0.00010373107731280224 -0.00024703533989206956 -0.00016547315851009141 7.5382329646296077e-05 -3.1043294225080765e-06 -0.00016466344022893808 0.00029050097678592489 1.8298551230317431e-05 -0.00042138204587089089 0.00050806185221826696 0.00092346078130386533 0.00055216028215268208 0.0010534127619083427 -0.00076631803014458224 -0.00088726437180801962 0.00013751931222868104 -0.000685815753240604 -1.8986960142986694e-05 -0.0013142876849997266 -0.00013268544792178244
leaf_weight=21 54 347 22 22 57 32 547 21 391 35 2327 123 24 463 49868 1710 156 7890 83 53 31 122 41 98 28 347 20 60 24 90
leaf_count=21 54 347 22 22 57 32 547 21 391 35 2327 123 24 463 49868 1710 156 7890 83 53 31 122 41 98 28 347 20 60 24 90
internal_value=-6.26289e-13 0.000336534 0.00104981 -4.67474e-06 -2.74555e-06 4.27136e-05 0.000181473 0.00142187 0.000111387 0.000399452 -1.02686e-05 0.000224665 0.000814155 -1.18243e-05 -7.59055e-06 -0.000113517 5.35226e-05 2.56654e-05 -0.000290846 -0.000169907 0.000226728 0.00035592 0.000650507 -0.000603271 0.00019762 6.10021e-05 0.000337215 -0.000405131 -0.00062166 0.000104794
internal_weight=65107 892 119 64215 63785 9057 991 53 938 98 54728 360 81 54368 52195 2173 279 8066 430 310 773 176 76 120 742 375 367 167 107 143
internal_count=65107 892 119 64215 63785 9057 991 53 938 98 54728 360 81 54368 52195 2173 279 8066 430 310 773 176 76 120 742 375 367 167 107 143
is_linear=0
shrinkage=0.05


Tree=9
num_leaves=31
num_cat=0
split_feature=5 10 0 5 7 4 18 7 3 10 7 3 7 7 5 20 10 10 4 10 8 7 8 5 7 8 13 8 21 5
split_gain=0.0369792 0.0268993 0.0780575 0.0129113 0.010957 0.0137517 0.00908055 0.0157692 0.00838642 0.00797414 0.00997328 0.00650219 0.0462643 0.012283 0.00649886 0.0215403 0.016466 0.00959495 0.00641168 0.006432 0.00847355 0.00625151 0.00667825 0.00607766 0.00591397 0.00607695 0.00577196 0.00539431 0.0119591 0.00434813
threshold=-0.032322987973694088 -0.19832341793578584 3.8820000886917119 0.027212165894152211 -0.1395872564747774 5307650.0000000009 1.0000000180025095e-35 -0.036697213458374615 1.5925000309944155 0.18845530593268037 -0.11303512859803376 20.710000038146976 -0.051282056768343291 -0.039207815649141546 -0.050617670260373553 1.0000000180025095e-35 0.13001483072785322 -0.069476223832790659 86150.000000000015 0.21152348487955783 2.9373534415083387 0.010204092105668529 0.88116958197943607 0.044710152187178449 -0.1395872564747774 1.1350717572801732 1.0000000180025095e-35 1.4631546686753958 2.8750000000000004 -0.019536549432117186
decision_type=10 8 2 10 10 2 2 10 2 8 10 2 10 8 8 2 10 8 2 8 10 10 10 10 8 10 2 10 2 10
left_child=1 2 -1 6 5 -5 8 -8 9 10 -2 13 -13 -10 15 16 17 -3 -6 23 -21 29 -23 -20 25 -16 -4 -17 -29 -9
right_child=3 14 26 4 18 -7 7 21 11 -11 -12 12 -14 -15 24 27 -18 -19 19 20 -22 22 -24 -25 -26 -27 -28 28 -30 -31
leaf_value=0.0038992903672624385 0.0012278241149535211 0.0013806566965649837 -0.00032818322635228892 0.0015559035982559658 -0.00077334133624217005 -3.1112606106594638e-05 0.000428299132108082 0.00066327747119578062 5.9923598838036168e-05 -0.00014202465512663248 0.00025502470293316845 -0.0004558610911154862 -1.4485245149392744e-05 -9.7203577198018122e-06 -0.00099984665756069489 0.0004805160782717425 0.002180239890135867 0.00028241044427177565 -0.00012563719166847995 9.7515630146476785e-06 0.0010952030736370944 4.6762968454503194e-05 -0.00019456832388345629 -0.00036534912792570757 0.00021039210374892495 7.0413346919748522e-05 0.000786327807387958 -0.00093578764519608936 0.00047147886084880717 0.00011257064590091491
leaf_weight=20 29 30 26 21 42 39 302 37 7436 115 288 638 8551 42607 21 29 22 59 1072 178 20 927 415 351 567 36 21 36 26 1146
leaf_count=20 29 30 26 21 42 39 302 37 7436 115 288 638 8551 42607 21 29 22 59 1072 178 20 927 415 351 567 36 21 36 26 1146
internal_value=2.05302e-12 0.000319539 0.00128307 -4.44371e-06 -0.000139466 0.000524343 -7.20871e-07 8.68401e-05 -4.86969e-06 0.000214632 0.000344019 -6.47059e-06 -4.51303e-05 6.28192e-07 0.000241383 0.000487882 0.00095538 0.000652606 -0.000163416 -0.000147613 0.000119393 4.60003e-05 -2.78663e-05 -0.000184765 0.000161587 -0.000323893 0.00016979 -8.2362e-05 -0.000345644 0.000129795
internal_weight=65107 893 67 64214 1723 60 62491 2827 59664 432 317 59232 9189 50043 826 202 111 89 1663 1621 198 2525 1342 1423 624 57 47 91 62 1183
internal_count=65107 893 67 64214 1723 60 62491 2827 59664 432 317 59232 9189 50043 826 202 111 89 1663 1621 198 2525 1342 1423 624 57 47 91 62 1183
is_linear=0
shrinkage=0.05


Tree=10
num_leaves=31
num_cat=0
split_feature=5 8 2 5 3 3 6 10 7 2 0 16 10 7 10 10 0 6 10 8 2 8 3 10 10 5 7 0 7 7
split_gain=0.0333738 0.025267 0.0846263 0.0116631 0.00787269 0.00752736 0.00752023 0.0312087 0.0685905 0.0156757 0.00748661 0.00837459 0.0209441 0.00740722 0.0130287 0.00751964 0.00686135 0.00616964 0.00633272 0.00805665 0.00728237 0.00547191 0.005411 0.00537117 0.0051246 0.0048701 0.00927427 0.00798156 0.00468793 0.00461348
threshold=-0.032322987973694088 0.63616516123167721 2.2908970117568974 0.044710152187178449 4.1619999408721933 3.8019999265670781 0.023880994872975122 -0.21429631065373353 -0.046153830729527882 2.6527794599533085 3.8502554893493657 1.0000000180025095e-35 -0.20834570192711868 -0.1395872564747774 -0.075367553944432439 0.12274666113201357 1.4475000500679018 0.015158590662310083 -0.036284438770729364 2.2333228657212447 4.3224999904632577 5.3404083663299815 3.5906709432601933 -0.058995807717502201 0.0071538550001889372 -0.040582767752047881 -0.1395872564747774 31.250000000000004 0.033057818671050961 0.056705931609053246
decision_type=10 8 2 10 2 2 10 8 10 2 2 2 10 8 10 8 2 10 8 10 2 10 2 10 10 8 8 2 10 10
left_child=1 2 -1 5 -4 6 16 8 -8 -9 11 -7 -13 14 -12 -15 23 29 22 -20 -21 25 -19 -2 -6 27 -27 -3 -24 -5
right_child=3 21 4 17 24 10 7 9 -10 -11 13 12 -14 15 -16 -17 -18 18 19 20 -22 -23 28 -25 -26 26 -28 -29 -30 -31
leaf_value=0.0038622547421601622 -8.2629263326655048e-05 0.00035767144197212291 -0.00046831233728219314 -0.0012912915221932053 0.00016136645056706456 -9.4864239706641843e-05 0.0036606468474201393 -6.977709365488389e-05 -5.0155989633408767e-05 0.00034479807990374194 -8.9336676842192129e-05 -0.0020439704134514614 -0.00025871432985498003 -2.1019645741541757e-05 0.00051408067008937189 2.0178602266697945e-05 1.6893210988720323e-05 0.00011280591308604926 -0.00024802891387747989 0.00087502884326150297 -7.1875583639161454e-05 0.00085012931451802299 -0.00030295624602877071 0.00051631147700808492 0.0009850885903621774 -0.00082978783300079932 0.00011609035812806066 -0.00066955734742805365 -0.00097788245766423638 -0.00027650345028156328
leaf_weight=21 54 347 22 24 35 455 20 547 33 391 175 20 92 38204 183 15598 7890 30 170 37 45 31 50 122 41 28 348 20 53 21
leaf_count=21 54 347 22 24 35 455 20 547 33 391 175 20 92 38204 183 15598 7890 30 170 37 45 31 50 122 41 28 348 20 53 21
internal_value=-7.10259e-13 0.000303562 0.000981857 -4.22153e-06 0.000364628 -2.47192e-06 3.97506e-05 0.000169733 0.00135015 0.000103036 -9.4595e-06 -0.000190202 -0.00057751 -7.56732e-06 0.000219114 -9.07566e-06 2.37807e-05 -0.000263749 -0.000198999 -5.16796e-05 0.000355386 0.000199277 -0.000478131 0.000332546 0.000605743 0.000172121 4.56526e-05 0.000301692 -0.000650248 -0.000817724
internal_weight=65107 893 119 64214 98 63784 9057 991 53 938 54727 567 112 54160 358 53802 8066 430 385 252 82 774 133 176 76 743 376 367 103 45
internal_count=65107 893 119 64214 98 63784 9057 991 53 938 54727 567 112 54160 358 53802 8066 430 385 252 82 774 133 176 76 743 376 367 103 45
is_linear=0
shrinkage=0.05


Tree=11
num_leaves=31
num_cat=0
split_feature=5 10 6 5 7 4 18 7 3 10 7 7 2 7 5 8 3 21 2 4 7 4 10 8 7 7 10 10 8 7
split_gain=0.0301198 0.024434 0.0726173 0.0111934 0.00956807 0.0124921 0.00820185 0.0141195 0.00717524 0.00713421 0.00913991 0.00629878 0.0409781 0.0132265 0.00604457 0.00595927 0.00575639 0.0105165 0.00995561 0.011935 0.00901897 0.00865764 0.0064699 0.00559979 0.00571077 0.00483717 0.0129746 0.0102826 0.00416242 0.00401991
threshold=-0.032322987973694088 -0.19832341793578584 0.022870399631669862 0.027212165894152211 -0.1395872564747774 9131600.0000000019 1.0000000180025095e-35 -0.036697213458374615 1.5925000309944155 0.18845530593268037 -0.11303512859803376 -0.067205868853839931 20.510000228881839 -0.039207815649141546 -0.0045540941151843142 0.6036519906676 4.1619999408721933 2.1250000000000004 4.7330000400543222 7876850.0000000009 -0.016129082349474685 2693950.0000000005 0.26207713811700056 0.52347729483846261 -0.018424410086976258 -0.1395872564747774 -0.067668095444137391 0.021007712902158367 5.3404083663299815 -0.082972565014033758
decision_type=10 8 10 10 10 2 2 10 2 8 10 10 2 10 10 10 2 2 2 2 10 2 8 8 10 8 10 10 10 8
left_child=1 2 -1 6 5 -5 8 -8 9 10 -2 12 -10 -13 -9 -16 17 21 19 -18 -20 -6 -19 24 -3 26 -25 -28 29 -27
right_child=3 23 -4 4 16 -7 7 14 11 -11 -12 13 -14 -15 15 -17 18 22 20 -21 -22 -23 -24 25 -26 28 27 -29 -30 -31
leaf_value=0.00013291643256881336 0.0011670041647699565 0.001033476544835139 0.0037301087785726848 0.0012618555223525619 0.0012544955507821768 -0.00018428291587042623 0.00040577794423984871 0.00018289911430166775 -1.1039043457328719e-05 -0.00013880418786910647 0.00023573444604304921 7.7163170676346882e-05 -0.00055477806285392087 -9.361919265525606e-06 9.7546191695258955e-05 -7.9090143910617503e-05 -0.00078776497972661477 -0.00019723957973383222 0.00019917643684626767 -9.5293838594777275e-05 -0.00021110274283130532 0.0001861057307771127 0.00066773432392991437 0.00081626636405147761 0.00013733108744418132 0.00045102157470632107 -0.0012465504631917511 -5.5129776116121898e-05 0.00091810949102398901 0.00013764027684006543
leaf_weight=47 29 40 20 28 23 32 302 598 3172 115 288 4837 389 50834 873 1054 145 360 164 109 731 108 23 27 32 129 27 55 21 495
leaf_count=47 29 40 20 28 23 32 302 598 3172 115 288 4837 389 50834 873 1054 145 360 164 109 731 108 23 27 32 129 27 55 21 495
internal_value=-1.8804e-12 0.000288384 0.00120671 -4.01045e-06 -0.00012973 0.000490582 -5.44118e-07 8.26726e-05 -4.48709e-06 0.000198547 0.000320929 -5.96789e-06 -7.04365e-05 -1.84415e-06 4.40279e-05 9.32441e-07 -0.00015211 -1.30263e-05 -0.000214329 -0.000490602 -0.000135923 0.000373686 -0.000145296 0.000213896 0.00063519 0.000173666 -0.000134402 -0.000447427 0.000225727 0.000202426
internal_weight=65107 893 67 64214 1723 60 62491 2827 59664 432 317 59232 3561 55671 2525 1927 1663 514 1149 254 895 131 383 826 72 754 109 82 645 624
internal_count=65107 893 67 64214 1723 60 62491 2827 59664 432 317 59232 3561 55671 2525 1927 1663 514 1149 254 895 131 383 826 72 754 109 82 645 624
is_linear=0
shrinkage=0.05


Tree=12
num_leaves=31
num_cat=0
split_feature=5 6 10 5 7 7 3 1 7 20 4 8 7 16 5 10 4 21 22 6 21 5 3 25 10 5 6 6 10 8
split_gain=0.0271831 0.0226079 0.0862523 0.0101813 0.0145647 0.014561 0.00863947 0.043721 0.266732 0.500208 0.0193357 0.132462 0.0139532 0.0812118 0.0106095 0.0110285 0.00940521 0.00876482 0.00850144 0.0109189 0.0085368 0.0083821 0.0117385 0.00867131 0.00770276 0.00722118 0.00863965 0.00705195 0.00649644 0.00648356
threshold=-0.032322987973694088 0.029115653146022043 -0.17485080675372672 0.020076659526476418 -0.017072200197579154 -0.018424410086976258 5.6549999713897714 5.6449999809265146 -0.041048746316996614 1.0000000180025095e-35 24865700.000000004 1.0444358742937392 -0.053983435783830129 1.0000000180025095e-35 -0.016216221847236586 -0.2657124802408603 3783150.0000000005 2.8750000000000004 -1.0000000180025095e-35 0.016984314823383088 2.3750000000000004 -0.050617670260373553 4.4019999504089364 1.0000000180025095e-35 0.31452606492178203 -0.050617670260373553 0.02133384926748921 0.022382557163669454 0.071496116954758812 0.16599021482568879
decision_type=10 10 8 10 10 10 2 2 10 2 2 10 10 2 10 8 2 2 2 10 2 10 2 2 8 8 10 10 8 10
left_child=1 18 -3 6 5 -5 7 14 9 -9 12 -12 13 -8 15 -2 -16 -13 19 -1 -21 22 -4 -23 29 26 -20 -22 -10 -6
right_child=3 2 21 4 24 -7 10 8 28 -11 11 17 -14 -15 16 -17 -18 -19 25 20 27 23 -24 -25 -26 -27 -28 -29 -30 -31
leaf_value=0.00038735528301220344 -0.00091654810286127038 0.0038960466487333182 0.0013076490271870219 5.6326153565883516e-05 -0.0010245653318799502 0.0012379097840662494 -8.1240528806504578e-06 -0.00012468185683246701 0.00017751640854470866 0.010083652063040065 -0.0042464409173200175 -0.00070713122186134576 -3.4961499611323533e-06 -0.00083948552150074965 -3.1619129056187642e-05 0.00014039240367541895 3.2251304800646433e-05 1.5294920513459798e-05 0.00097531501365744554 1.5563937459988624e-05 -0.0012406304774819599 0.0004703841666923836 -0.00012350182944868246 -0.00072982201839935168 0.00024547875017479108 0.00018759094945613092 -1.8668771076590929e-05 -0.0002612060238607228 -0.00031663414063549852 -0.00016213416521582236
leaf_weight=84 25 20 38 760 22 27 2011 30 207 20 21 52 32284 344 9856 1931 13882 218 69 89 34 34 23 27 117 403 32 40 98 2309
leaf_count=84 25 20 38 760 22 27 2011 30 207 20 21 52 32284 344 9856 1931 13882 218 69 89 34 34 23 27 117 403 32 40 98 2309
internal_value=-2.2547e-12 0.000273965 0.000852528 -3.80993e-06 -9.02491e-05 9.68633e-05 7.75757e-07 2.25693e-05 0.000573657 0.00395865 -1.54767e-05 -0.000421346 -1.2067e-05 -0.000129563 1.49552e-05 0.000126883 5.73235e-06 -0.000123839 0.00016457 -7.57354e-05 -0.000314383 0.00035359 0.000768035 -6.08546e-05 -0.000150403 0.000282338 0.000660389 -0.000711212 1.87402e-05 -0.000170274
internal_weight=65107 893 142 64214 3235 787 60979 26049 355 50 34930 291 34639 2355 25694 1956 23738 270 751 247 163 122 61 61 2448 504 101 74 305 2331
internal_count=65107 893 142 64214 3235 787 60979 26049 355 50 34930 291 34639 2355 25694 1956 23738 270 751 247 163 122 61 61 2448 504 101 74 305 2331
is_linear=0
shrinkage=0.05


Tree=13
num_leaves=31
num_cat=0
split_feature=5 8 2 5 10 5 18 7 5 0 7 16 5 7 6 5 20 6 10 3 0 7 4 0 8 7 22 2 6 8
split_gain=0.0245328 0.0215349 0.0756294 0.00965953 0.00705372 0.00860737 0.00660751 0.013813 0.00829523 0.00601331 0.0348731 0.173062 0.0100829 0.0100346 0.0228755 0.00758472 0.00567155 0.00537626 0.00583734 0.00589814 0.00700955 0.00536674 0.00514045 0.00490276 0.00424875 0.00417284 0.00398114 0.00548618 0.00468698 0.00396022
threshold=-0.032322987973694088 0.63616516123167721 2.2908970117568974 0.044710152187178449 -0.02367825828189148 -0.035550228357678786 1.0000000180025095e-35 -0.018014139673468928 0.011823452044542162 20.710000038146976 -0.051282056768343291 1.0000000180025095e-35 0.0099173456013151879 -0.039207815649141546 0.0076294166274378005 -0.011591812074336514 1.0000000180025095e-35 0.015158590662310083 0.20256274068179519 4.3020000457763681 7.1514539718627939 -0.079999972146654871 10094750.000000002 2.464499950408936 5.3404083663299815 0.056705931609053246 1.0000000180025095e-35 4.1019999980926523 0.020352795223243191 1.4388389196694129
decision_type=10 8 2 10 10 10 2 10 10 2 10 2 10 8 10 10 2 10 8 2 2 10 2 2 10 10 2 2 10 10
left_child=1 2 -1 6 16 -6 9 21 22 13 11 -11 -12 14 -2 -15 -4 25 19 -19 -21 -8 -9 -23 26 -5 -3 28 -28 -10
right_child=3 24 4 17 5 -7 7 8 29 10 12 -13 -14 15 -16 -17 -18 18 -20 20 -22 23 -24 -25 -26 -27 27 -29 -30 -31
leaf_value=0.0036094512003252196 0.00035282445884781658 0.00010156895974281117 0.00037670415366024133 -0.0012073207726037557 0.0011144694245288249 -0.00017296986792644022 0.00069841759566085224 8.2954108077618543e-05 -0.0001324178849055448 2.9324211963828656e-05 2.7066723307168843e-06 -0.0019393561318972554 -0.00017338082522239213 5.9820121272094898e-05 2.8928681349503295e-05 -1.4508442464808281e-05 -0.00079978544792538755 -6.9010259146441011e-06 0.00038457995240871864 -0.00069340453140893932 -9.3483973581566141e-05 0.00084069331247930328 -0.00017150275199842978 0.00019306946161033885 0.00073750438206198236 -0.0002422110252414963 0.00029679647837342187 -6.3749372566235257e-05 0.0013071621680865065 -0.00057164701337342194
leaf_weight=21 590 669 21 24 37 20 69 1742 259 522 7767 142 908 3754 7168 40034 20 147 41 109 88 31 224 510 31 21 22 28 24 64
leaf_count=21 590 669 21 24 37 20 69 1742 259 522 7767 142 908 3754 7168 40034 20 147 41 109 88 31 224 510 31 21 22 28 24 64
internal_value=-2.42254e-12 0.000260267 0.000886467 -3.61943e-06 0.00030297 0.000662736 -2.02718e-06 7.17232e-05 1.53813e-05 -5.53876e-06 -4.24551e-05 -0.000391689 -1.57242e-05 1.14967e-06 5.35611e-05 -8.13616e-06 -0.000197193 -0.000239806 -0.000179362 -0.000246576 -0.00042542 0.000283144 5.39621e-05 0.000230179 0.000163991 -0.000756936 0.000140062 0.00048806 0.000823944 -0.000219448
internal_weight=65107 893 119 64214 98 57 63784 2899 2289 60885 9339 664 8675 51546 7758 43788 41 430 385 344 197 610 1966 541 774 45 743 74 46 323
internal_count=65107 893 119 64214 98 57 63784 2899 2289 60885 9339 664 8675 51546 7758 43788 41 430 385 344 197 610 1966 541 774 45 743 74 46 323
is_linear=0
shrinkage=0.05


Tree=14
num_leaves=31
num_cat=0
split_feature=5 10 0 5 3 4 7 8 6 20 4 2 2 6 21 4 5 7 8 6 5 4 10 6 1 13 6 1 4 2
split_gain=0.0221408 0.0210419 0.0682097 0.00871773 0.0061211 0.00968274 0.015611 0.0193625 0.0110509 0.0283724 0.00878122 0.0870911 0.00795436 0.00766618 0.0069015 0.00680814 0.0059453 0.00553163 0.00530835 0.00658494 0.00728012 0.00664635 0.00516059 0.00532834 0.00593279 0.00509794 0.00495136 0.00482376 0.00697633 0.00777408
threshold=-0.032322987973694088 -0.19832341793578584 3.8820000886917119 0.044710152187178449 4.3729999065399179 1747395.5000000002 -0.077067771326002274 0.20981803660797529 0.01599055509890487 1.0000000180025095e-35 24865700.000000004 11.537788867950441 4.3224999904632577 0.012977585738428894 2.3750000000000004 202950.00000000003 0.023680422810567595 -0.1395872564747774 1.8761393487353721 0.029115653146022043 0.056366844400175038 5010100.0000000009 -0.069476223832790659 0.019570947753935489 4.0710000991821298 1.0000000180025095e-35 0.019816371275561049 68.009998321533217 1979550.0000000002 4.9110000133514413
decision_type=10 8 2 10 2 2 10 10 10 2 2 2 2 10 2 2 10 8 10 10 10 2 8 10 2 2 10 2 2 2
left_child=1 2 -1 4 5 6 7 -2 16 -10 12 13 14 -12 -6 -8 -7 -14 19 20 21 -5 26 -24 -25 -4 -20 28 29 -3
right_child=3 27 25 18 10 8 15 -9 9 -11 11 -13 17 -15 -16 -17 -18 -19 22 -21 -22 -23 23 24 -26 -27 -28 -29 -30 -31
leaf_value=0.003545073070567924 -0.0020587527005409357 0.0011787121914494493 -0.00040923735843814658 -0.00067633323199502301 -0.0010868260005171861 1.7304059825230306e-05 0.00041492088081512629 -0.00033882295685341688 -1.0902746704022214e-05 0.0002533515302811498 4.499041419226809e-05 -0.0027729192486731337 0.00021211873558401912 -0.00028517585521142423 -0.00019988428846570767 -5.831620617161731e-05 -0.00025202194966411862 -8.0522779299589428e-06 7.3264453039016751e-05 -1.8314138970360804e-05 -0.001110607052170154 0.00010418745767547872 -0.00029025623830071149 0.00085581776453182113 3.1503008935472066e-05 0.00063818086304568821 -0.00096816892945207665 -0.00058892466826364397 0.00011856465656507043 0.00031873395112220386
leaf_weight=20 20 32 26 67 29 8449 79 90 2211 1879 504 31 287 270 90 2001 210 47634 21 81 45 46 52 35 58 21 25 20 627 147
leaf_count=20 20 32 26 67 29 8449 79 90 2211 1879 504 31 287 270 90 2001 210 47634 21 81 45 46 52 35 58 21 25 20 627 147
internal_value=2.80464e-13 0.000247253 0.00109945 -3.43846e-06 -1.92582e-06 2.60819e-05 -7.10416e-05 -0.000651537 4.27656e-05 0.000110499 -1.04919e-05 -0.000174264 -7.74754e-06 -7.01839e-05 -0.00041603 -4.03423e-05 1.07723e-05 -6.73367e-06 -0.000227815 -0.000384864 -0.000572779 -0.000358599 -3.12995e-05 0.000115086 0.000341729 5.8758e-05 -0.000492732 0.000178129 0.000197162 0.000472473
internal_weight=65107 893 67 64214 63784 14939 2190 110 12749 4090 48845 805 48040 774 119 2080 8659 47921 430 239 158 113 191 145 93 47 46 826 806 179
internal_count=65107 893 67 64214 63784 14939 2190 110 12749 4090 48845 805 48040 774 119 2080 8659 47921 430 239 158 113 191 145 93 47 46 826 806 179
is_linear=0
shrinkage=0.05


Tree=15
num_leaves=31
num_cat=0
split_feature=5 6 10 5 7 4 22 6 21 5 10 25 18 7 5 5 6 6 8 7 20 3 16 6 8 7 2 7 4 10
split_gain=0.0199821 0.0194756 0.0765477 0.00813033 0.0080964 0.0117299 0.00746229 0.00992723 0.00752621 0.00738916 0.0113246 0.00773941 0.00659158 0.0118628 0.00658543 0.00653989 0.00796468 0.00642663 0.00635368 0.00607497 0.00605096 0.00605 0.00642866 0.0253115 0.00922447 0.00565115 0.0324597 0.0111883 0.00557498 0.00508635
threshold=-0.032322987973694088 0.029115653146022043 -0.17485080675372672 0.027212165894152211 -0.1395872564747774 5307650.0000000009 -1.0000000180025095e-35 0.016984314823383088 2.3750000000000004 -0.050617670260373553 0.023747231431526503 1.0000000180025095e-35 1.0000000180025095e-35 -0.049894936867710786 -0.0065789254913697906 -0.050617670260373553 0.02133384926748921 0.022382557163669454 0.60851195010943726 0.04633678709202161 1.0000000180025095e-35 1.5925000309944155 1.0000000180025095e-35 0.024461036603050431 1.1498147567700745 -0.067205868853839931 20.510000228881839 -0.039207815649141546 86150.000000000015 0.21152348487955783
decision_type=10 10 8 10 10 2 2 10 2 10 10 2 2 10 10 8 10 10 10 10 2 2 2 10 10 10 2 10 2 8
left_child=1 6 -3 12 5 -5 7 -1 -9 10 -4 -11 21 -14 -15 16 -8 -10 -16 20 -17 22 24 -24 -2 26 -23 -27 -6 -30
right_child=3 2 9 4 28 -7 15 8 17 11 -12 -13 13 14 18 19 -18 -19 -20 -21 -22 25 23 -25 -26 27 -28 -29 29 -31
leaf_value=0.00034977594294191691 -7.1454787348557144e-05 0.0036390726588433607 0.00010379460473944034 0.0014129204268101604 -0.00069973831550236185 -5.2798131274847456e-05 0.00090584192371022875 -9.5336833050516383e-06 -0.0011973380921785173 0.00041460642746909905 0.0014814034102108473 -0.00071927432541593183 0.00045162314129520764 0.00021206244275575947 0.00010341651206404422 -6.6770720715996702e-05 -4.8524854446441171e-05 -0.00026234596785798206 -6.9515356456389661e-05 0.0008035554859265122 0.00034742701873444182 -1.3406770269458363e-05 0.00015002581094868012 0.0021226571581792089 0.00056683926209998763 7.1364225509968084e-05 -0.00049734191396448178 -8.2151285906776468e-06 -0.00014930173526606403 0.00012117481375496184
leaf_weight=84 252 20 35 21 42 39 69 89 34 34 26 27 194 489 970 225 32 40 1174 33 145 3172 87 20 73 4837 389 50834 1423 198
leaf_count=84 252 20 35 21 42 39 69 89 34 34 26 27 194 489 970 225 32 40 1174 33 145 3172 87 20 73 4837 389 50834 1423 198
internal_value=-3.76575e-13 0.000234891 0.00077188 -3.26654e-06 -0.000110412 0.000460203 0.000133356 -9.1784e-05 -0.000319336 0.000301848 0.000690972 -8.72752e-05 -3.12315e-07 7.42895e-05 4.64875e-05 0.000243693 0.000603468 -0.000691937 8.72341e-06 0.000153526 9.555e-05 -3.8471e-06 0.000182588 0.000518742 7.19159e-05 -5.20684e-06 -6.62714e-05 -1.30084e-06 -0.000131 -0.000116264
internal_weight=65107 893 142 64214 1723 60 751 247 163 122 61 61 62491 2827 2633 504 101 74 2144 403 370 59664 432 107 325 59232 3561 55671 1663 1621
internal_count=65107 893 142 64214 1723 60 751 247 163 122 61 61 62491 2827 2633 504 101 74 2144 403 370 59664 432 107 325 59232 3561 55671 1663 1621
is_linear=0
shrinkage=0.05


end of trees

feature_importances:
momentum_20=91
fx_sensitivity=74
daily_return=66
volume_ratio=53
volatility_20=43
close=31
open=25
volume=22
low=21
christmas_window=10
opr_rate=8
opr_regime=8
high=7
hari_raya_window=7
any_festive=7
glc_flag=3
deepavali_window=2
opr_holding=2

parameters:
[boosting: gbdt]
[objective: regression]
[metric: l2]
[tree_learner: serial]
[device_type: cpu]
[data_sample_strategy: bagging]
[data: ]
[valid: ]
[num_iterations: 200]
[learning_rate: 0.05]
[num_leaves: 31]
[num_threads: 0]
[seed: 0]
[deterministic: 0]
[force_col_wise: 0]
[force_row_wise: 0]
[histogram_pool_size: -1]
[max_depth: 6]
[min_data_in_leaf: 20]
[min_sum_hessian_in_leaf: 0.001]
[bagging_fraction: 1]
[pos_bagging_fraction: 1]
[neg_bagging_fraction: 1]
[bagging_freq: 0]
[bagging_seed: 3]
[bagging_by_query: 0]
[feature_fraction: 1]
[feature_fraction_bynode: 1]
[feature_fraction_seed: 2]
[extra_trees: 0]
[extra_seed: 6]
[early_stopping_round: 0]
[early_stopping_min_delta: 0]
[first_metric_only: 0]
[max_delta_step: 0]
[lambda_l1: 0]
[lambda_l2: 0]
[linear_lambda: 0]
[min_gain_to_split: 0]
[drop_rate: 0.1]
[max_drop: 50]
[skip_drop: 0.5]
[xgboost_dart_mode: 0]
[uniform_drop: 0]
[drop_seed: 4]
[top_rate: 0.2]
[other_rate: 0.1]
[min_data_per_group: 100]
[max_cat_threshold: 32]
[cat_l2: 10]
[cat_smooth: 10]
[max_cat_to_onehot: 4]
[top_k: 20]
[monotone_constraints: ]
[monotone_constraints_method: basic]
[monotone_penalty: 0]
[feature_contri: ]
[forcedsplits_filename: ]
[refit_decay_rate: 0.9]
[cegb_tradeoff: 1]
[cegb_penalty_split: 0]
[cegb_penalty_feature_lazy: ]
[cegb_penalty_feature_coupled: ]
[path_smooth: 0]
[interaction_constraints: ]
[verbosity: 1]
[saved_feature_importance_type: 0]
[use_quantized_grad: 0]
[num_grad_quant_bins: 4]
[quant_train_renew_leaf: 0]
[stochastic_rounding: 1]
[linear_tree: 0]
[max_bin: 255]
[max_bin_by_feature: ]
[min_data_in_bin: 3]
[bin_construct_sample_cnt: 200000]
[data_random_seed: 1]
[is_enable_sparse: 1]
[enable_bundle: 1]
[use_missing: 1]
[zero_as_missing: 0]
[feature_pre_filter: 1]
[pre_partition: 0]
[two_round: 0]
[header: 0]
[label_column: ]
[weight_column: ]
[group_column: ]
[ignore_column: ]
[categorical_feature: ]
[forcedbins_filename: ]
[precise_float_parser: 0]
[parser_config_file: ]
[objective_seed: 5]
[num_class: 1]
[is_unbalance: 0]
[scale_pos_weight: 1]
[sigmoid: 1]
[boost_from_average: 1]
[reg_sqrt: 0]
[alpha: 0.9]
[fair_c: 1]
[poisson_max_delta_step: 0.7]
[tweedie_variance_power: 1.5]
[lambdarank_truncation_level: 30]
[lambdarank_norm: 1]
[label_gain: ]
[lambdarank_position_bias_regularization: 0]
[eval_at: ]
[multi_error_top_k: 1]
[auc_mu_weights: ]
[num_machines: 1]
[local_listen_port: 12400]
[time_out: 120]
[machine_list_filename: ]
[machines: ]
[gpu_platform_id: -1]
[gpu_device_id: -1]
[gpu_use_dp: 0]
[num_gpu: 1]

end of parameters

pandas_categorical:[]
